10,10,3
[ 0.  0.  0.  0.  0.  0.  0.  0.  0.  0.]
[ 0.  0.  0.  0.  0.  0.  0.  0.  0.11682079  0.]
[ 0.  0.  0.  0.  0.  0.  0.  0.  0.  0.]
[ 0.  0.  0.  0.  0.  0.  0.  0.  0.  0.]
[ 0.  0.  0.  0.  0.  0.  0.  0.  0.  0.]
[ 0.  0.  0.  0.  0.  0. -0.27956428  0. 0.77533924  0.]
[ 0.  0.  0.31862947  0.  0.  0. -0.34 0. 0. 0.]
[ 0.  0.  0.  0.  0.00092448  0.  0. 0. -0.43409495  0.]
[ 0.  0. -0.45883058  0.  0.  0.  0. 0. 0.10481649  0.]
[ 0.  0.  0.  0.  0.  0.  0.19595935 0. 0. 0.]
[ 0.56356404  0.50784531 -0.11282986]
[ 0.57151748 -0.48914332 -0.7004712 ]
[ 0.06889115 -0.14366103 -0.25551526]
[-0.56718632  0.57826362  0.92540207]
[ 0.99343556  0.62314174 -0.79555999]
[ 0.82358594 -0.38692673 -0.84347227]
[ 0.67918728  0.9586482  -0.46669037]
[ 0.35320507 -0.95075388 -0.32817357]
[-0.07969372  0.17574977  0.41994134]
[-0.61431999 -0.00784968  0.49051588]
[ 0.87706063 -0.02378662  0.23962675 -0.3577025  -0.1351198  -0.965599
  0.1175542  -0.46514166  0.31502359  0.90868258  0.07766096 -0.47303663
 -0.3422189 ]
[ -2.97328045e-02  -1.45511119e-03  -6.92294218e+00  -9.56679762e-02
  -5.40320601e-02  -3.74660997e-03   3.74534786e-02  -1.20756257e-01
   2.55222671e-02   9.04622380e-02   4.24532866e-03  -4.69705693e-02
  -3.15110342e-01]
[ 0.  0.  0.  0.  0.  0.  0.  0.  0.  0.  0.  0.  0.]
